digraph Tree {
node [shape=box, style="filled", color="black"] ;
0 [label="marital_status_Married-civ-spouse <= 0.5\ngini = 0.357\nsamples = 800\nvalue = [614, 186]\nclass = <=50K", fillcolor="#eda775"] ;
1 [label="education_num <= 14.5\ngini = 0.122\nsamples = 444\nvalue = [415, 29]\nclass = <=50K", fillcolor="#e78a47"] ;
0 -> 1 [labeldistance=2.5, labelangle=45, headlabel="True"] ;
2 [label="age <= 39.5\ngini = 0.104\nsamples = 438\nvalue = [414, 24]\nclass = <=50K", fillcolor="#e78844"] ;
1 -> 2 ;
3 [label="education_num <= 10.5\ngini = 0.02\nsamples = 298\nvalue = [295, 3]\nclass = <=50K", fillcolor="#e5823b"] ;
2 -> 3 ;
4 [label="gini = 0.0\nsamples = 227\nvalue = [227, 0]\nclass = <=50K", fillcolor="#e58139"] ;
3 -> 4 ;
5 [label="weeklyHours <= 58.0\ngini = 0.081\nsamples = 71\nvalue = [68, 3]\nclass = <=50K", fillcolor="#e68742"] ;
3 -> 5 ;
6 [label="age <= 30.5\ngini = 0.057\nsamples = 68\nvalue = [66, 2]\nclass = <=50K", fillcolor="#e6853f"] ;
5 -> 6 ;
7 [label="gini = 0.0\nsamples = 44\nvalue = [44, 0]\nclass = <=50K", fillcolor="#e58139"] ;
6 -> 7 ;
8 [label="education_num <= 11.5\ngini = 0.153\nsamples = 24\nvalue = [22, 2]\nclass = <=50K", fillcolor="#e78c4b"] ;
6 -> 8 ;
9 [label="sex_Male <= 0.5\ngini = 0.444\nsamples = 3\nvalue = [2, 1]\nclass = <=50K", fillcolor="#f2c09c"] ;
8 -> 9 ;
10 [label="age <= 35.5\ngini = 0.5\nsamples = 2\nvalue = [1, 1]\nclass = <=50K", fillcolor="#ffffff"] ;
9 -> 10 ;
11 [label="gini = 0.0\nsamples = 1\nvalue = [0, 1]\nclass = >50K", fillcolor="#399de5"] ;
10 -> 11 ;
12 [label="gini = 0.0\nsamples = 1\nvalue = [1, 0]\nclass = <=50K", fillcolor="#e58139"] ;
10 -> 12 ;
13 [label="gini = 0.0\nsamples = 1\nvalue = [1, 0]\nclass = <=50K", fillcolor="#e58139"] ;
9 -> 13 ;
14 [label="age <= 31.5\ngini = 0.091\nsamples = 21\nvalue = [20, 1]\nclass = <=50K", fillcolor="#e68743"] ;
8 -> 14 ;
15 [label="sex_Male <= 0.5\ngini = 0.278\nsamples = 6\nvalue = [5, 1]\nclass = <=50K", fillcolor="#ea9a61"] ;
14 -> 15 ;
16 [label="gini = 0.0\nsamples = 4\nvalue = [4, 0]\nclass = <=50K", fillcolor="#e58139"] ;
15 -> 16 ;
17 [label="gini = 0.5\nsamples = 2\nvalue = [1, 1]\nclass = <=50K", fillcolor="#ffffff"] ;
15 -> 17 ;
18 [label="gini = 0.0\nsamples = 15\nvalue = [15, 0]\nclass = <=50K", fillcolor="#e58139"] ;
14 -> 18 ;
19 [label="sex_Female <= 0.5\ngini = 0.444\nsamples = 3\nvalue = [2, 1]\nclass = <=50K", fillcolor="#f2c09c"] ;
5 -> 19 ;
20 [label="gini = 0.0\nsamples = 1\nvalue = [0, 1]\nclass = >50K", fillcolor="#399de5"] ;
19 -> 20 ;
21 [label="gini = 0.0\nsamples = 2\nvalue = [2, 0]\nclass = <=50K", fillcolor="#e58139"] ;
19 -> 21 ;
22 [label="education_num <= 12.5\ngini = 0.255\nsamples = 140\nvalue = [119, 21]\nclass = <=50K", fillcolor="#ea975c"] ;
2 -> 22 ;
23 [label="capital_gain <= 8834.5\ngini = 0.14\nsamples = 106\nvalue = [98, 8]\nclass = <=50K", fillcolor="#e78b49"] ;
22 -> 23 ;
24 [label="occupation_Prof-specialty <= 0.5\ngini = 0.124\nsamples = 105\nvalue = [98, 7]\nclass = <=50K", fillcolor="#e78a47"] ;
23 -> 24 ;
25 [label="weeklyHours <= 41.0\ngini = 0.096\nsamples = 99\nvalue = [94, 5]\nclass = <=50K", fillcolor="#e68844"] ;
24 -> 25 ;
26 [label="age <= 45.5\ngini = 0.025\nsamples = 79\nvalue = [78, 1]\nclass = <=50K", fillcolor="#e5833c"] ;
25 -> 26 ;
27 [label="age <= 44.5\ngini = 0.095\nsamples = 20\nvalue = [19, 1]\nclass = <=50K", fillcolor="#e68843"] ;
26 -> 27 ;
28 [label="gini = 0.0\nsamples = 15\nvalue = [15, 0]\nclass = <=50K", fillcolor="#e58139"] ;
27 -> 28 ;
29 [label="education_HS-grad <= 0.5\ngini = 0.32\nsamples = 5\nvalue = [4, 1]\nclass = <=50K", fillcolor="#eca06a"] ;
27 -> 29 ;
30 [label="gini = 0.0\nsamples = 4\nvalue = [4, 0]\nclass = <=50K", fillcolor="#e58139"] ;
29 -> 30 ;
31 [label="gini = 0.0\nsamples = 1\nvalue = [0, 1]\nclass = >50K", fillcolor="#399de5"] ;
29 -> 31 ;
32 [label="gini = 0.0\nsamples = 59\nvalue = [59, 0]\nclass = <=50K", fillcolor="#e58139"] ;
26 -> 32 ;
33 [label="age <= 51.0\ngini = 0.32\nsamples = 20\nvalue = [16, 4]\nclass = <=50K", fillcolor="#eca06a"] ;
25 -> 33 ;
34 [label="weeklyHours <= 56.5\ngini = 0.142\nsamples = 13\nvalue = [12, 1]\nclass = <=50K", fillcolor="#e78c49"] ;
33 -> 34 ;
35 [label="gini = 0.0\nsamples = 10\nvalue = [10, 0]\nclass = <=50K", fillcolor="#e58139"] ;
34 -> 35 ;
36 [label="education_num <= 9.5\ngini = 0.444\nsamples = 3\nvalue = [2, 1]\nclass = <=50K", fillcolor="#f2c09c"] ;
34 -> 36 ;
37 [label="gini = 0.0\nsamples = 2\nvalue = [2, 0]\nclass = <=50K", fillcolor="#e58139"] ;
36 -> 37 ;
38 [label="gini = 0.0\nsamples = 1\nvalue = [0, 1]\nclass = >50K", fillcolor="#399de5"] ;
36 -> 38 ;
39 [label="age <= 57.5\ngini = 0.49\nsamples = 7\nvalue = [4, 3]\nclass = <=50K", fillcolor="#f8e0ce"] ;
33 -> 39 ;
40 [label="gini = 0.0\nsamples = 2\nvalue = [0, 2]\nclass = >50K", fillcolor="#399de5"] ;
39 -> 40 ;
41 [label="education_num <= 6.5\ngini = 0.32\nsamples = 5\nvalue = [4, 1]\nclass = <=50K", fillcolor="#eca06a"] ;
39 -> 41 ;
42 [label="gini = 0.0\nsamples = 1\nvalue = [0, 1]\nclass = >50K", fillcolor="#399de5"] ;
41 -> 42 ;
43 [label="gini = 0.0\nsamples = 4\nvalue = [4, 0]\nclass = <=50K", fillcolor="#e58139"] ;
41 -> 43 ;
44 [label="age <= 55.5\ngini = 0.444\nsamples = 6\nvalue = [4, 2]\nclass = <=50K", fillcolor="#f2c09c"] ;
24 -> 44 ;
45 [label="education_num <= 10.5\ngini = 0.32\nsamples = 5\nvalue = [4, 1]\nclass = <=50K", fillcolor="#eca06a"] ;
44 -> 45 ;
46 [label="gini = 0.0\nsamples = 3\nvalue = [3, 0]\nclass = <=50K", fillcolor="#e58139"] ;
45 -> 46 ;
47 [label="age <= 45.5\ngini = 0.5\nsamples = 2\nvalue = [1, 1]\nclass = <=50K", fillcolor="#ffffff"] ;
45 -> 47 ;
48 [label="gini = 0.0\nsamples = 1\nvalue = [0, 1]\nclass = >50K", fillcolor="#399de5"] ;
47 -> 48 ;
49 [label="gini = 0.0\nsamples = 1\nvalue = [1, 0]\nclass = <=50K", fillcolor="#e58139"] ;
47 -> 49 ;
50 [label="gini = 0.0\nsamples = 1\nvalue = [0, 1]\nclass = >50K", fillcolor="#399de5"] ;
44 -> 50 ;
51 [label="gini = 0.0\nsamples = 1\nvalue = [0, 1]\nclass = >50K", fillcolor="#399de5"] ;
23 -> 51 ;
52 [label="occupation_Exec-managerial <= 0.5\ngini = 0.472\nsamples = 34\nvalue = [21, 13]\nclass = <=50K", fillcolor="#f5cfb4"] ;
22 -> 52 ;
53 [label="weeklyHours <= 36.5\ngini = 0.32\nsamples = 20\nvalue = [16, 4]\nclass = <=50K", fillcolor="#eca06a"] ;
52 -> 53 ;
54 [label="gini = 0.0\nsamples = 1\nvalue = [0, 1]\nclass = >50K", fillcolor="#399de5"] ;
53 -> 54 ;
55 [label="age <= 44.0\ngini = 0.266\nsamples = 19\nvalue = [16, 3]\nclass = <=50K", fillcolor="#ea995e"] ;
53 -> 55 ;
56 [label="weeklyHours <= 52.5\ngini = 0.444\nsamples = 6\nvalue = [4, 2]\nclass = <=50K", fillcolor="#f2c09c"] ;
55 -> 56 ;
57 [label="weeklyHours <= 41.0\ngini = 0.32\nsamples = 5\nvalue = [4, 1]\nclass = <=50K", fillcolor="#eca06a"] ;
56 -> 57 ;
58 [label="sex_Male <= 0.5\ngini = 0.444\nsamples = 3\nvalue = [2, 1]\nclass = <=50K", fillcolor="#f2c09c"] ;
57 -> 58 ;
59 [label="gini = 0.0\nsamples = 1\nvalue = [1, 0]\nclass = <=50K", fillcolor="#e58139"] ;
58 -> 59 ;
60 [label="education_num <= 13.5\ngini = 0.5\nsamples = 2\nvalue = [1, 1]\nclass = <=50K", fillcolor="#ffffff"] ;
58 -> 60 ;
61 [label="gini = 0.0\nsamples = 1\nvalue = [0, 1]\nclass = >50K", fillcolor="#399de5"] ;
60 -> 61 ;
62 [label="gini = 0.0\nsamples = 1\nvalue = [1, 0]\nclass = <=50K", fillcolor="#e58139"] ;
60 -> 62 ;
63 [label="gini = 0.0\nsamples = 2\nvalue = [2, 0]\nclass = <=50K", fillcolor="#e58139"] ;
57 -> 63 ;
64 [label="gini = 0.0\nsamples = 1\nvalue = [0, 1]\nclass = >50K", fillcolor="#399de5"] ;
56 -> 64 ;
65 [label="age <= 60.5\ngini = 0.142\nsamples = 13\nvalue = [12, 1]\nclass = <=50K", fillcolor="#e78c49"] ;
55 -> 65 ;
66 [label="gini = 0.0\nsamples = 11\nvalue = [11, 0]\nclass = <=50K", fillcolor="#e58139"] ;
65 -> 66 ;
67 [label="education_Bachelors <= 0.5\ngini = 0.5\nsamples = 2\nvalue = [1, 1]\nclass = <=50K", fillcolor="#ffffff"] ;
65 -> 67 ;
68 [label="gini = 0.0\nsamples = 1\nvalue = [0, 1]\nclass = >50K", fillcolor="#399de5"] ;
67 -> 68 ;
69 [label="gini = 0.0\nsamples = 1\nvalue = [1, 0]\nclass = <=50K", fillcolor="#e58139"] ;
67 -> 69 ;
70 [label="weeklyHours <= 42.5\ngini = 0.459\nsamples = 14\nvalue = [5, 9]\nclass = >50K", fillcolor="#a7d3f3"] ;
52 -> 70 ;
71 [label="age <= 56.0\ngini = 0.278\nsamples = 6\nvalue = [5, 1]\nclass = <=50K", fillcolor="#ea9a61"] ;
70 -> 71 ;
72 [label="gini = 0.0\nsamples = 5\nvalue = [5, 0]\nclass = <=50K", fillcolor="#e58139"] ;
71 -> 72 ;
73 [label="gini = 0.0\nsamples = 1\nvalue = [0, 1]\nclass = >50K", fillcolor="#399de5"] ;
71 -> 73 ;
74 [label="gini = 0.0\nsamples = 8\nvalue = [0, 8]\nclass = >50K", fillcolor="#399de5"] ;
70 -> 74 ;
75 [label="weeklyHours <= 67.5\ngini = 0.278\nsamples = 6\nvalue = [1, 5]\nclass = >50K", fillcolor="#61b1ea"] ;
1 -> 75 ;
76 [label="gini = 0.0\nsamples = 5\nvalue = [0, 5]\nclass = >50K", fillcolor="#399de5"] ;
75 -> 76 ;
77 [label="gini = 0.0\nsamples = 1\nvalue = [1, 0]\nclass = <=50K", fillcolor="#e58139"] ;
75 -> 77 ;
78 [label="education_num <= 10.5\ngini = 0.493\nsamples = 356\nvalue = [199, 157]\nclass = <=50K", fillcolor="#fae4d5"] ;
0 -> 78 [labeldistance=2.5, labelangle=-45, headlabel="False"] ;
79 [label="capital_gain <= 4225.0\ngini = 0.412\nsamples = 227\nvalue = [161, 66]\nclass = <=50K", fillcolor="#f0b58a"] ;
78 -> 79 ;
80 [label="age <= 33.5\ngini = 0.391\nsamples = 218\nvalue = [160, 58]\nclass = <=50K", fillcolor="#eeaf81"] ;
79 -> 80 ;
81 [label="education_num <= 9.5\ngini = 0.111\nsamples = 51\nvalue = [48, 3]\nclass = <=50K", fillcolor="#e78945"] ;
80 -> 81 ;
82 [label="gini = 0.0\nsamples = 27\nvalue = [27, 0]\nclass = <=50K", fillcolor="#e58139"] ;
81 -> 82 ;
83 [label="age <= 27.5\ngini = 0.219\nsamples = 24\nvalue = [21, 3]\nclass = <=50K", fillcolor="#e99355"] ;
81 -> 83 ;
84 [label="gini = 0.0\nsamples = 12\nvalue = [12, 0]\nclass = <=50K", fillcolor="#e58139"] ;
83 -> 84 ;
85 [label="weeklyHours <= 45.0\ngini = 0.375\nsamples = 12\nvalue = [9, 3]\nclass = <=50K", fillcolor="#eeab7b"] ;
83 -> 85 ;
86 [label="occupation_Exec-managerial <= 0.5\ngini = 0.469\nsamples = 8\nvalue = [5, 3]\nclass = <=50K", fillcolor="#f5cdb0"] ;
85 -> 86 ;
87 [label="age <= 31.5\ngini = 0.408\nsamples = 7\nvalue = [5, 2]\nclass = <=50K", fillcolor="#efb388"] ;
86 -> 87 ;
88 [label="capital_gain <= 2032.0\ngini = 0.48\nsamples = 5\nvalue = [3, 2]\nclass = <=50K", fillcolor="#f6d5bd"] ;
87 -> 88 ;
89 [label="weeklyHours <= 39.0\ngini = 0.5\nsamples = 4\nvalue = [2, 2]\nclass = <=50K", fillcolor="#ffffff"] ;
88 -> 89 ;
90 [label="gini = 0.0\nsamples = 1\nvalue = [0, 1]\nclass = >50K", fillcolor="#399de5"] ;
89 -> 90 ;
91 [label="sex_Female <= 0.5\ngini = 0.444\nsamples = 3\nvalue = [2, 1]\nclass = <=50K", fillcolor="#f2c09c"] ;
89 -> 91 ;
92 [label="gini = 0.0\nsamples = 1\nvalue = [1, 0]\nclass = <=50K", fillcolor="#e58139"] ;
91 -> 92 ;
93 [label="gini = 0.5\nsamples = 2\nvalue = [1, 1]\nclass = <=50K", fillcolor="#ffffff"] ;
91 -> 93 ;
94 [label="gini = 0.0\nsamples = 1\nvalue = [1, 0]\nclass = <=50K", fillcolor="#e58139"] ;
88 -> 94 ;
95 [label="gini = 0.0\nsamples = 2\nvalue = [2, 0]\nclass = <=50K", fillcolor="#e58139"] ;
87 -> 95 ;
96 [label="gini = 0.0\nsamples = 1\nvalue = [0, 1]\nclass = >50K", fillcolor="#399de5"] ;
86 -> 96 ;
97 [label="gini = 0.0\nsamples = 4\nvalue = [4, 0]\nclass = <=50K", fillcolor="#e58139"] ;
85 -> 97 ;
98 [label="occupation_Exec-managerial <= 0.5\ngini = 0.442\nsamples = 167\nvalue = [112, 55]\nclass = <=50K", fillcolor="#f2bf9a"] ;
80 -> 98 ;
99 [label="occupation_Prof-specialty <= 0.5\ngini = 0.421\nsamples = 153\nvalue = [107, 46]\nclass = <=50K", fillcolor="#f0b78e"] ;
98 -> 99 ;
100 [label="age <= 54.5\ngini = 0.401\nsamples = 144\nvalue = [104, 40]\nclass = <=50K", fillcolor="#efb185"] ;
99 -> 100 ;
101 [label="weeklyHours <= 67.0\ngini = 0.438\nsamples = 102\nvalue = [69, 33]\nclass = <=50K", fillcolor="#f1bd98"] ;
100 -> 101 ;
102 [label="education_num <= 3.5\ngini = 0.428\nsamples = 100\nvalue = [69, 31]\nclass = <=50K", fillcolor="#f1ba92"] ;
101 -> 102 ;
103 [label="gini = 0.0\nsamples = 5\nvalue = [5, 0]\nclass = <=50K", fillcolor="#e58139"] ;
102 -> 103 ;
104 [label="weeklyHours <= 33.5\ngini = 0.44\nsamples = 95\nvalue = [64, 31]\nclass = <=50K", fillcolor="#f2be99"] ;
102 -> 104 ;
105 [label="weeklyHours <= 10.5\ngini = 0.18\nsamples = 10\nvalue = [9, 1]\nclass = <=50K", fillcolor="#e88f4f"] ;
104 -> 105 ;
106 [label="gini = 0.0\nsamples = 1\nvalue = [0, 1]\nclass = >50K", fillcolor="#399de5"] ;
105 -> 106 ;
107 [label="gini = 0.0\nsamples = 9\nvalue = [9, 0]\nclass = <=50K", fillcolor="#e58139"] ;
105 -> 107 ;
108 [label="capital_gain <= 2841.5\ngini = 0.457\nsamples = 85\nvalue = [55, 30]\nclass = <=50K", fillcolor="#f3c6a5"] ;
104 -> 108 ;
109 [label="age <= 46.5\ngini = 0.452\nsamples = 84\nvalue = [55, 29]\nclass = <=50K", fillcolor="#f3c3a1"] ;
108 -> 109 ;
110 [label="age <= 34.5\ngini = 0.42\nsamples = 60\nvalue = [42, 18]\nclass = <=50K", fillcolor="#f0b78e"] ;
109 -> 110 ;
111 [label="education_num <= 6.5\ngini = 0.48\nsamples = 5\nvalue = [2, 3]\nclass = >50K", fillcolor="#bddef6"] ;
110 -> 111 ;
112 [label="gini = 0.0\nsamples = 1\nvalue = [1, 0]\nclass = <=50K", fillcolor="#e58139"] ;
111 -> 112 ;
113 [label="weeklyHours <= 37.5\ngini = 0.375\nsamples = 4\nvalue = [1, 3]\nclass = >50K", fillcolor="#7bbeee"] ;
111 -> 113 ;
114 [label="gini = 0.0\nsamples = 1\nvalue = [0, 1]\nclass = >50K", fillcolor="#399de5"] ;
113 -> 114 ;
115 [label="weeklyHours <= 42.5\ngini = 0.444\nsamples = 3\nvalue = [1, 2]\nclass = >50K", fillcolor="#9ccef2"] ;
113 -> 115 ;
116 [label="gini = 0.5\nsamples = 2\nvalue = [1, 1]\nclass = <=50K", fillcolor="#ffffff"] ;
115 -> 116 ;
117 [label="gini = 0.0\nsamples = 1\nvalue = [0, 1]\nclass = >50K", fillcolor="#399de5"] ;
115 -> 117 ;
118 [label="education_num <= 4.5\ngini = 0.397\nsamples = 55\nvalue = [40, 15]\nclass = <=50K", fillcolor="#efb083"] ;
110 -> 118 ;
119 [label="gini = 0.0\nsamples = 1\nvalue = [0, 1]\nclass = >50K", fillcolor="#399de5"] ;
118 -> 119 ;
120 [label="education_num <= 9.5\ngini = 0.384\nsamples = 54\nvalue = [40, 14]\nclass = <=50K", fillcolor="#eead7e"] ;
118 -> 120 ;
121 [label="weeklyHours <= 44.0\ngini = 0.332\nsamples = 38\nvalue = [30, 8]\nclass = <=50K", fillcolor="#eca36e"] ;
120 -> 121 ;
122 [label="age <= 36.5\ngini = 0.408\nsamples = 28\nvalue = [20, 8]\nclass = <=50K", fillcolor="#efb388"] ;
121 -> 122 ;
123 [label="sex_Male <= 0.5\ngini = 0.219\nsamples = 8\nvalue = [7, 1]\nclass = <=50K", fillcolor="#e99355"] ;
122 -> 123 ;
124 [label="occupation_Other-service <= 0.5\ngini = 0.5\nsamples = 2\nvalue = [1, 1]\nclass = <=50K", fillcolor="#ffffff"] ;
123 -> 124 ;
125 [label="gini = 0.0\nsamples = 1\nvalue = [1, 0]\nclass = <=50K", fillcolor="#e58139"] ;
124 -> 125 ;
126 [label="gini = 0.0\nsamples = 1\nvalue = [0, 1]\nclass = >50K", fillcolor="#399de5"] ;
124 -> 126 ;
127 [label="gini = 0.0\nsamples = 6\nvalue = [6, 0]\nclass = <=50K", fillcolor="#e58139"] ;
123 -> 127 ;
128 [label="occupation_Other-service <= 0.5\ngini = 0.455\nsamples = 20\nvalue = [13, 7]\nclass = <=50K", fillcolor="#f3c5a4"] ;
122 -> 128 ;
129 [label="age <= 44.5\ngini = 0.484\nsamples = 17\nvalue = [10, 7]\nclass = <=50K", fillcolor="#f7d9c4"] ;
128 -> 129 ;
130 [label="education_num <= 7.5\ngini = 0.492\nsamples = 16\nvalue = [9, 7]\nclass = <=50K", fillcolor="#f9e3d3"] ;
129 -> 130 ;
131 [label="gini = 0.0\nsamples = 1\nvalue = [1, 0]\nclass = <=50K", fillcolor="#e58139"] ;
130 -> 131 ;
132 [label="education_HS-grad <= 0.5\ngini = 0.498\nsamples = 15\nvalue = [8, 7]\nclass = <=50K", fillcolor="#fcefe6"] ;
130 -> 132 ;
133 [label="gini = 0.0\nsamples = 1\nvalue = [0, 1]\nclass = >50K", fillcolor="#399de5"] ;
132 -> 133 ;
134 [label="weeklyHours <= 37.5\ngini = 0.49\nsamples = 14\nvalue = [8, 6]\nclass = <=50K", fillcolor="#f8e0ce"] ;
132 -> 134 ;
135 [label="gini = 0.0\nsamples = 1\nvalue = [1, 0]\nclass = <=50K", fillcolor="#e58139"] ;
134 -> 135 ;
136 [label="sex_Male <= 0.5\ngini = 0.497\nsamples = 13\nvalue = [7, 6]\nclass = <=50K", fillcolor="#fbede3"] ;
134 -> 136 ;
137 [label="gini = 0.0\nsamples = 1\nvalue = [0, 1]\nclass = >50K", fillcolor="#399de5"] ;
136 -> 137 ;
138 [label="age <= 43.5\ngini = 0.486\nsamples = 12\nvalue = [7, 5]\nclass = <=50K", fillcolor="#f8dbc6"] ;
136 -> 138 ;
139 [label="age <= 37.5\ngini = 0.496\nsamples = 11\nvalue = [6, 5]\nclass = <=50K", fillcolor="#fbeade"] ;
138 -> 139 ;
140 [label="gini = 0.444\nsamples = 3\nvalue = [2, 1]\nclass = <=50K", fillcolor="#f2c09c"] ;
139 -> 140 ;
141 [label="age <= 40.0\ngini = 0.5\nsamples = 8\nvalue = [4, 4]\nclass = <=50K", fillcolor="#ffffff"] ;
139 -> 141 ;
142 [label="gini = 0.0\nsamples = 1\nvalue = [0, 1]\nclass = >50K", fillcolor="#399de5"] ;
141 -> 142 ;
143 [label="age <= 42.5\ngini = 0.49\nsamples = 7\nvalue = [4, 3]\nclass = <=50K", fillcolor="#f8e0ce"] ;
141 -> 143 ;
144 [label="gini = 0.5\nsamples = 4\nvalue = [2, 2]\nclass = <=50K", fillcolor="#ffffff"] ;
143 -> 144 ;
145 [label="gini = 0.444\nsamples = 3\nvalue = [2, 1]\nclass = <=50K", fillcolor="#f2c09c"] ;
143 -> 145 ;
146 [label="gini = 0.0\nsamples = 1\nvalue = [1, 0]\nclass = <=50K", fillcolor="#e58139"] ;
138 -> 146 ;
147 [label="gini = 0.0\nsamples = 1\nvalue = [1, 0]\nclass = <=50K", fillcolor="#e58139"] ;
129 -> 147 ;
148 [label="gini = 0.0\nsamples = 3\nvalue = [3, 0]\nclass = <=50K", fillcolor="#e58139"] ;
128 -> 148 ;
149 [label="gini = 0.0\nsamples = 10\nvalue = [10, 0]\nclass = <=50K", fillcolor="#e58139"] ;
121 -> 149 ;
150 [label="weeklyHours <= 41.0\ngini = 0.469\nsamples = 16\nvalue = [10, 6]\nclass = <=50K", fillcolor="#f5cdb0"] ;
120 -> 150 ;
151 [label="age <= 42.5\ngini = 0.219\nsamples = 8\nvalue = [7, 1]\nclass = <=50K", fillcolor="#e99355"] ;
150 -> 151 ;
152 [label="gini = 0.0\nsamples = 4\nvalue = [4, 0]\nclass = <=50K", fillcolor="#e58139"] ;
151 -> 152 ;
153 [label="age <= 43.5\ngini = 0.375\nsamples = 4\nvalue = [3, 1]\nclass = <=50K", fillcolor="#eeab7b"] ;
151 -> 153 ;
154 [label="gini = 0.5\nsamples = 2\nvalue = [1, 1]\nclass = <=50K", fillcolor="#ffffff"] ;
153 -> 154 ;
155 [label="gini = 0.0\nsamples = 2\nvalue = [2, 0]\nclass = <=50K", fillcolor="#e58139"] ;
153 -> 155 ;
156 [label="weeklyHours <= 49.0\ngini = 0.469\nsamples = 8\nvalue = [3, 5]\nclass = >50K", fillcolor="#b0d8f5"] ;
150 -> 156 ;
157 [label="gini = 0.0\nsamples = 3\nvalue = [0, 3]\nclass = >50K", fillcolor="#399de5"] ;
156 -> 157 ;
158 [label="weeklyHours <= 55.0\ngini = 0.48\nsamples = 5\nvalue = [3, 2]\nclass = <=50K", fillcolor="#f6d5bd"] ;
156 -> 158 ;
159 [label="age <= 38.5\ngini = 0.375\nsamples = 4\nvalue = [3, 1]\nclass = <=50K", fillcolor="#eeab7b"] ;
158 -> 159 ;
160 [label="gini = 0.0\nsamples = 2\nvalue = [2, 0]\nclass = <=50K", fillcolor="#e58139"] ;
159 -> 160 ;
161 [label="age <= 41.0\ngini = 0.5\nsamples = 2\nvalue = [1, 1]\nclass = <=50K", fillcolor="#ffffff"] ;
159 -> 161 ;
162 [label="gini = 0.0\nsamples = 1\nvalue = [0, 1]\nclass = >50K", fillcolor="#399de5"] ;
161 -> 162 ;
163 [label="gini = 0.0\nsamples = 1\nvalue = [1, 0]\nclass = <=50K", fillcolor="#e58139"] ;
161 -> 163 ;
164 [label="gini = 0.0\nsamples = 1\nvalue = [0, 1]\nclass = >50K", fillcolor="#399de5"] ;
158 -> 164 ;
165 [label="weeklyHours <= 46.0\ngini = 0.497\nsamples = 24\nvalue = [13, 11]\nclass = <=50K", fillcolor="#fbece1"] ;
109 -> 165 ;
166 [label="sex_Male <= 0.5\ngini = 0.457\nsamples = 17\nvalue = [11, 6]\nclass = <=50K", fillcolor="#f3c6a5"] ;
165 -> 166 ;
167 [label="gini = 0.0\nsamples = 1\nvalue = [0, 1]\nclass = >50K", fillcolor="#399de5"] ;
166 -> 167 ;
168 [label="age <= 48.5\ngini = 0.43\nsamples = 16\nvalue = [11, 5]\nclass = <=50K", fillcolor="#f1ba93"] ;
166 -> 168 ;
169 [label="gini = 0.0\nsamples = 2\nvalue = [2, 0]\nclass = <=50K", fillcolor="#e58139"] ;
168 -> 169 ;
170 [label="age <= 49.5\ngini = 0.459\nsamples = 14\nvalue = [9, 5]\nclass = <=50K", fillcolor="#f3c7a7"] ;
168 -> 170 ;
171 [label="gini = 0.0\nsamples = 2\nvalue = [0, 2]\nclass = >50K", fillcolor="#399de5"] ;
170 -> 171 ;
172 [label="age <= 53.5\ngini = 0.375\nsamples = 12\nvalue = [9, 3]\nclass = <=50K", fillcolor="#eeab7b"] ;
170 -> 172 ;
173 [label="education_num <= 9.5\ngini = 0.245\nsamples = 7\nvalue = [6, 1]\nclass = <=50K", fillcolor="#e9965a"] ;
172 -> 173 ;
174 [label="gini = 0.0\nsamples = 5\nvalue = [5, 0]\nclass = <=50K", fillcolor="#e58139"] ;
173 -> 174 ;
175 [label="age <= 51.5\ngini = 0.5\nsamples = 2\nvalue = [1, 1]\nclass = <=50K", fillcolor="#ffffff"] ;
173 -> 175 ;
176 [label="gini = 0.0\nsamples = 1\nvalue = [0, 1]\nclass = >50K", fillcolor="#399de5"] ;
175 -> 176 ;
177 [label="gini = 0.0\nsamples = 1\nvalue = [1, 0]\nclass = <=50K", fillcolor="#e58139"] ;
175 -> 177 ;
178 [label="education_num <= 6.5\ngini = 0.48\nsamples = 5\nvalue = [3, 2]\nclass = <=50K", fillcolor="#f6d5bd"] ;
172 -> 178 ;
179 [label="gini = 0.0\nsamples = 1\nvalue = [0, 1]\nclass = >50K", fillcolor="#399de5"] ;
178 -> 179 ;
180 [label="education_num <= 9.5\ngini = 0.375\nsamples = 4\nvalue = [3, 1]\nclass = <=50K", fillcolor="#eeab7b"] ;
178 -> 180 ;
181 [label="gini = 0.444\nsamples = 3\nvalue = [2, 1]\nclass = <=50K", fillcolor="#f2c09c"] ;
180 -> 181 ;
182 [label="gini = 0.0\nsamples = 1\nvalue = [1, 0]\nclass = <=50K", fillcolor="#e58139"] ;
180 -> 182 ;
183 [label="age <= 52.5\ngini = 0.408\nsamples = 7\nvalue = [2, 5]\nclass = >50K", fillcolor="#88c4ef"] ;
165 -> 183 ;
184 [label="gini = 0.0\nsamples = 4\nvalue = [0, 4]\nclass = >50K", fillcolor="#399de5"] ;
183 -> 184 ;
185 [label="age <= 53.5\ngini = 0.444\nsamples = 3\nvalue = [2, 1]\nclass = <=50K", fillcolor="#f2c09c"] ;
183 -> 185 ;
186 [label="gini = 0.0\nsamples = 2\nvalue = [2, 0]\nclass = <=50K", fillcolor="#e58139"] ;
185 -> 186 ;
187 [label="gini = 0.0\nsamples = 1\nvalue = [0, 1]\nclass = >50K", fillcolor="#399de5"] ;
185 -> 187 ;
188 [label="gini = 0.0\nsamples = 1\nvalue = [0, 1]\nclass = >50K", fillcolor="#399de5"] ;
108 -> 188 ;
189 [label="gini = 0.0\nsamples = 2\nvalue = [0, 2]\nclass = >50K", fillcolor="#399de5"] ;
101 -> 189 ;
190 [label="weeklyHours <= 25.0\ngini = 0.278\nsamples = 42\nvalue = [35, 7]\nclass = <=50K", fillcolor="#ea9a61"] ;
100 -> 190 ;
191 [label="gini = 0.0\nsamples = 7\nvalue = [7, 0]\nclass = <=50K", fillcolor="#e58139"] ;
190 -> 191 ;
192 [label="weeklyHours <= 32.5\ngini = 0.32\nsamples = 35\nvalue = [28, 7]\nclass = <=50K", fillcolor="#eca06a"] ;
190 -> 192 ;
193 [label="gini = 0.0\nsamples = 1\nvalue = [0, 1]\nclass = >50K", fillcolor="#399de5"] ;
192 -> 193 ;
194 [label="age <= 60.5\ngini = 0.291\nsamples = 34\nvalue = [28, 6]\nclass = <=50K", fillcolor="#eb9c63"] ;
192 -> 194 ;
195 [label="age <= 55.5\ngini = 0.365\nsamples = 25\nvalue = [19, 6]\nclass = <=50K", fillcolor="#eda978"] ;
194 -> 195 ;
196 [label="gini = 0.0\nsamples = 4\nvalue = [4, 0]\nclass = <=50K", fillcolor="#e58139"] ;
195 -> 196 ;
197 [label="relationship_Husband <= 0.5\ngini = 0.408\nsamples = 21\nvalue = [15, 6]\nclass = <=50K", fillcolor="#efb388"] ;
195 -> 197 ;
198 [label="gini = 0.0\nsamples = 1\nvalue = [0, 1]\nclass = >50K", fillcolor="#399de5"] ;
197 -> 198 ;
199 [label="age <= 59.5\ngini = 0.375\nsamples = 20\nvalue = [15, 5]\nclass = <=50K", fillcolor="#eeab7b"] ;
197 -> 199 ;
200 [label="occupation_Other-service <= 0.5\ngini = 0.32\nsamples = 15\nvalue = [12, 3]\nclass = <=50K", fillcolor="#eca06a"] ;
199 -> 200 ;
201 [label="weeklyHours <= 42.5\ngini = 0.26\nsamples = 13\nvalue = [11, 2]\nclass = <=50K", fillcolor="#ea985d"] ;
200 -> 201 ;
202 [label="gini = 0.0\nsamples = 5\nvalue = [5, 0]\nclass = <=50K", fillcolor="#e58139"] ;
201 -> 202 ;
203 [label="age <= 58.5\ngini = 0.375\nsamples = 8\nvalue = [6, 2]\nclass = <=50K", fillcolor="#eeab7b"] ;
201 -> 203 ;
204 [label="weeklyHours <= 55.0\ngini = 0.444\nsamples = 6\nvalue = [4, 2]\nclass = <=50K", fillcolor="#f2c09c"] ;
203 -> 204 ;
205 [label="education_HS-grad <= 0.5\ngini = 0.48\nsamples = 5\nvalue = [3, 2]\nclass = <=50K", fillcolor="#f6d5bd"] ;
204 -> 205 ;
206 [label="weeklyHours <= 47.5\ngini = 0.444\nsamples = 3\nvalue = [2, 1]\nclass = <=50K", fillcolor="#f2c09c"] ;
205 -> 206 ;
207 [label="gini = 0.0\nsamples = 1\nvalue = [1, 0]\nclass = <=50K", fillcolor="#e58139"] ;
206 -> 207 ;
208 [label="gini = 0.5\nsamples = 2\nvalue = [1, 1]\nclass = <=50K", fillcolor="#ffffff"] ;
206 -> 208 ;
209 [label="weeklyHours <= 47.5\ngini = 0.5\nsamples = 2\nvalue = [1, 1]\nclass = <=50K", fillcolor="#ffffff"] ;
205 -> 209 ;
210 [label="gini = 0.0\nsamples = 1\nvalue = [0, 1]\nclass = >50K", fillcolor="#399de5"] ;
209 -> 210 ;
211 [label="gini = 0.0\nsamples = 1\nvalue = [1, 0]\nclass = <=50K", fillcolor="#e58139"] ;
209 -> 211 ;
212 [label="gini = 0.0\nsamples = 1\nvalue = [1, 0]\nclass = <=50K", fillcolor="#e58139"] ;
204 -> 212 ;
213 [label="gini = 0.0\nsamples = 2\nvalue = [2, 0]\nclass = <=50K", fillcolor="#e58139"] ;
203 -> 213 ;
214 [label="gini = 0.5\nsamples = 2\nvalue = [1, 1]\nclass = <=50K", fillcolor="#ffffff"] ;
200 -> 214 ;
215 [label="weeklyHours <= 50.0\ngini = 0.48\nsamples = 5\nvalue = [3, 2]\nclass = <=50K", fillcolor="#f6d5bd"] ;
199 -> 215 ;
216 [label="weeklyHours <= 37.5\ngini = 0.375\nsamples = 4\nvalue = [3, 1]\nclass = <=50K", fillcolor="#eeab7b"] ;
215 -> 216 ;
217 [label="gini = 0.0\nsamples = 1\nvalue = [1, 0]\nclass = <=50K", fillcolor="#e58139"] ;
216 -> 217 ;
218 [label="gini = 0.444\nsamples = 3\nvalue = [2, 1]\nclass = <=50K", fillcolor="#f2c09c"] ;
216 -> 218 ;
219 [label="gini = 0.0\nsamples = 1\nvalue = [0, 1]\nclass = >50K", fillcolor="#399de5"] ;
215 -> 219 ;
220 [label="gini = 0.0\nsamples = 9\nvalue = [9, 0]\nclass = <=50K", fillcolor="#e58139"] ;
194 -> 220 ;
221 [label="age <= 49.0\ngini = 0.444\nsamples = 9\nvalue = [3, 6]\nclass = >50K", fillcolor="#9ccef2"] ;
99 -> 221 ;
222 [label="age <= 42.5\ngini = 0.278\nsamples = 6\nvalue = [1, 5]\nclass = >50K", fillcolor="#61b1ea"] ;
221 -> 222 ;
223 [label="age <= 38.0\ngini = 0.5\nsamples = 2\nvalue = [1, 1]\nclass = <=50K", fillcolor="#ffffff"] ;
222 -> 223 ;
224 [label="gini = 0.0\nsamples = 1\nvalue = [0, 1]\nclass = >50K", fillcolor="#399de5"] ;
223 -> 224 ;
225 [label="gini = 0.0\nsamples = 1\nvalue = [1, 0]\nclass = <=50K", fillcolor="#e58139"] ;
223 -> 225 ;
226 [label="gini = 0.0\nsamples = 4\nvalue = [0, 4]\nclass = >50K", fillcolor="#399de5"] ;
222 -> 226 ;
227 [label="relationship_Husband <= 0.5\ngini = 0.444\nsamples = 3\nvalue = [2, 1]\nclass = <=50K", fillcolor="#f2c09c"] ;
221 -> 227 ;
228 [label="gini = 0.0\nsamples = 1\nvalue = [1, 0]\nclass = <=50K", fillcolor="#e58139"] ;
227 -> 228 ;
229 [label="education_num <= 9.5\ngini = 0.5\nsamples = 2\nvalue = [1, 1]\nclass = <=50K", fillcolor="#ffffff"] ;
227 -> 229 ;
230 [label="gini = 0.0\nsamples = 1\nvalue = [1, 0]\nclass = <=50K", fillcolor="#e58139"] ;
229 -> 230 ;
231 [label="gini = 0.0\nsamples = 1\nvalue = [0, 1]\nclass = >50K", fillcolor="#399de5"] ;
229 -> 231 ;
232 [label="age <= 70.0\ngini = 0.459\nsamples = 14\nvalue = [5, 9]\nclass = >50K", fillcolor="#a7d3f3"] ;
98 -> 232 ;
233 [label="education_HS-grad <= 0.5\ngini = 0.375\nsamples = 12\nvalue = [3, 9]\nclass = >50K", fillcolor="#7bbeee"] ;
232 -> 233 ;
234 [label="age <= 39.0\ngini = 0.5\nsamples = 6\nvalue = [3, 3]\nclass = <=50K", fillcolor="#ffffff"] ;
233 -> 234 ;
235 [label="gini = 0.0\nsamples = 1\nvalue = [0, 1]\nclass = >50K", fillcolor="#399de5"] ;
234 -> 235 ;
236 [label="weeklyHours <= 39.0\ngini = 0.48\nsamples = 5\nvalue = [3, 2]\nclass = <=50K", fillcolor="#f6d5bd"] ;
234 -> 236 ;
237 [label="gini = 0.0\nsamples = 1\nvalue = [0, 1]\nclass = >50K", fillcolor="#399de5"] ;
236 -> 237 ;
238 [label="age <= 48.5\ngini = 0.375\nsamples = 4\nvalue = [3, 1]\nclass = <=50K", fillcolor="#eeab7b"] ;
236 -> 238 ;
239 [label="gini = 0.0\nsamples = 2\nvalue = [2, 0]\nclass = <=50K", fillcolor="#e58139"] ;
238 -> 239 ;
240 [label="age <= 50.0\ngini = 0.5\nsamples = 2\nvalue = [1, 1]\nclass = <=50K", fillcolor="#ffffff"] ;
238 -> 240 ;
241 [label="gini = 0.0\nsamples = 1\nvalue = [0, 1]\nclass = >50K", fillcolor="#399de5"] ;
240 -> 241 ;
242 [label="gini = 0.0\nsamples = 1\nvalue = [1, 0]\nclass = <=50K", fillcolor="#e58139"] ;
240 -> 242 ;
243 [label="gini = 0.0\nsamples = 6\nvalue = [0, 6]\nclass = >50K", fillcolor="#399de5"] ;
233 -> 243 ;
244 [label="gini = 0.0\nsamples = 2\nvalue = [2, 0]\nclass = <=50K", fillcolor="#e58139"] ;
232 -> 244 ;
245 [label="weeklyHours <= 37.5\ngini = 0.198\nsamples = 9\nvalue = [1, 8]\nclass = >50K", fillcolor="#52a9e8"] ;
79 -> 245 ;
246 [label="gini = 0.0\nsamples = 1\nvalue = [1, 0]\nclass = <=50K", fillcolor="#e58139"] ;
245 -> 246 ;
247 [label="gini = 0.0\nsamples = 8\nvalue = [0, 8]\nclass = >50K", fillcolor="#399de5"] ;
245 -> 247 ;
248 [label="occupation_Exec-managerial <= 0.5\ngini = 0.416\nsamples = 129\nvalue = [38, 91]\nclass = >50K", fillcolor="#8cc6f0"] ;
78 -> 248 ;
249 [label="education_num <= 14.5\ngini = 0.47\nsamples = 90\nvalue = [34, 56]\nclass = >50K", fillcolor="#b1d8f5"] ;
248 -> 249 ;
250 [label="capital_gain <= 5842.0\ngini = 0.492\nsamples = 78\nvalue = [34, 44]\nclass = >50K", fillcolor="#d2e9f9"] ;
249 -> 250 ;
251 [label="age <= 27.5\ngini = 0.5\nsamples = 70\nvalue = [34, 36]\nclass = >50K", fillcolor="#f4fafe"] ;
250 -> 251 ;
252 [label="gini = 0.0\nsamples = 3\nvalue = [3, 0]\nclass = <=50K", fillcolor="#e58139"] ;
251 -> 252 ;
253 [label="capital_gain <= 1203.5\ngini = 0.497\nsamples = 67\nvalue = [31, 36]\nclass = >50K", fillcolor="#e4f1fb"] ;
251 -> 253 ;
254 [label="age <= 40.5\ngini = 0.492\nsamples = 64\nvalue = [28, 36]\nclass = >50K", fillcolor="#d3e9f9"] ;
253 -> 254 ;
255 [label="weeklyHours <= 39.0\ngini = 0.444\nsamples = 33\nvalue = [11, 22]\nclass = >50K", fillcolor="#9ccef2"] ;
254 -> 255 ;
256 [label="gini = 0.0\nsamples = 5\nvalue = [0, 5]\nclass = >50K", fillcolor="#399de5"] ;
255 -> 256 ;
257 [label="education_Bachelors <= 0.5\ngini = 0.477\nsamples = 28\nvalue = [11, 17]\nclass = >50K", fillcolor="#b9dcf6"] ;
255 -> 257 ;
258 [label="age <= 30.0\ngini = 0.5\nsamples = 16\nvalue = [8, 8]\nclass = <=50K", fillcolor="#ffffff"] ;
257 -> 258 ;
259 [label="gini = 0.0\nsamples = 2\nvalue = [2, 0]\nclass = <=50K", fillcolor="#e58139"] ;
258 -> 259 ;
260 [label="occupation_Prof-specialty <= 0.5\ngini = 0.49\nsamples = 14\nvalue = [6, 8]\nclass = >50K", fillcolor="#cee6f8"] ;
258 -> 260 ;
261 [label="weeklyHours <= 42.5\ngini = 0.42\nsamples = 10\nvalue = [3, 7]\nclass = >50K", fillcolor="#8ec7f0"] ;
260 -> 261 ;
262 [label="occupation_Other-service <= 0.5\ngini = 0.346\nsamples = 9\nvalue = [2, 7]\nclass = >50K", fillcolor="#72b9ec"] ;
261 -> 262 ;
263 [label="age <= 38.5\ngini = 0.219\nsamples = 8\nvalue = [1, 7]\nclass = >50K", fillcolor="#55abe9"] ;
262 -> 263 ;
264 [label="gini = 0.0\nsamples = 5\nvalue = [0, 5]\nclass = >50K", fillcolor="#399de5"] ;
263 -> 264 ;
265 [label="education_num <= 11.5\ngini = 0.444\nsamples = 3\nvalue = [1, 2]\nclass = >50K", fillcolor="#9ccef2"] ;
263 -> 265 ;
266 [label="gini = 0.0\nsamples = 2\nvalue = [0, 2]\nclass = >50K", fillcolor="#399de5"] ;
265 -> 266 ;
267 [label="gini = 0.0\nsamples = 1\nvalue = [1, 0]\nclass = <=50K", fillcolor="#e58139"] ;
265 -> 267 ;
268 [label="gini = 0.0\nsamples = 1\nvalue = [1, 0]\nclass = <=50K", fillcolor="#e58139"] ;
262 -> 268 ;
269 [label="gini = 0.0\nsamples = 1\nvalue = [1, 0]\nclass = <=50K", fillcolor="#e58139"] ;
261 -> 269 ;
270 [label="weeklyHours <= 45.0\ngini = 0.375\nsamples = 4\nvalue = [3, 1]\nclass = <=50K", fillcolor="#eeab7b"] ;
260 -> 270 ;
271 [label="gini = 0.0\nsamples = 2\nvalue = [2, 0]\nclass = <=50K", fillcolor="#e58139"] ;
270 -> 271 ;
272 [label="gini = 0.5\nsamples = 2\nvalue = [1, 1]\nclass = <=50K", fillcolor="#ffffff"] ;
270 -> 272 ;
273 [label="age <= 35.5\ngini = 0.375\nsamples = 12\nvalue = [3, 9]\nclass = >50K", fillcolor="#7bbeee"] ;
257 -> 273 ;
274 [label="age <= 28.5\ngini = 0.198\nsamples = 9\nvalue = [1, 8]\nclass = >50K", fillcolor="#52a9e8"] ;
273 -> 274 ;
275 [label="gini = 0.5\nsamples = 2\nvalue = [1, 1]\nclass = <=50K", fillcolor="#ffffff"] ;
274 -> 275 ;
276 [label="gini = 0.0\nsamples = 7\nvalue = [0, 7]\nclass = >50K", fillcolor="#399de5"] ;
274 -> 276 ;
277 [label="age <= 39.5\ngini = 0.444\nsamples = 3\nvalue = [2, 1]\nclass = <=50K", fillcolor="#f2c09c"] ;
273 -> 277 ;
278 [label="gini = 0.0\nsamples = 2\nvalue = [2, 0]\nclass = <=50K", fillcolor="#e58139"] ;
277 -> 278 ;
279 [label="gini = 0.0\nsamples = 1\nvalue = [0, 1]\nclass = >50K", fillcolor="#399de5"] ;
277 -> 279 ;
280 [label="age <= 47.5\ngini = 0.495\nsamples = 31\nvalue = [17, 14]\nclass = <=50K", fillcolor="#fae9dc"] ;
254 -> 280 ;
281 [label="age <= 43.5\ngini = 0.26\nsamples = 13\nvalue = [11, 2]\nclass = <=50K", fillcolor="#ea985d"] ;
280 -> 281 ;
282 [label="occupation_Prof-specialty <= 0.5\ngini = 0.375\nsamples = 8\nvalue = [6, 2]\nclass = <=50K", fillcolor="#eeab7b"] ;
281 -> 282 ;
283 [label="weeklyHours <= 47.5\ngini = 0.245\nsamples = 7\nvalue = [6, 1]\nclass = <=50K", fillcolor="#e9965a"] ;
282 -> 283 ;
284 [label="gini = 0.0\nsamples = 6\nvalue = [6, 0]\nclass = <=50K", fillcolor="#e58139"] ;
283 -> 284 ;
285 [label="gini = 0.0\nsamples = 1\nvalue = [0, 1]\nclass = >50K", fillcolor="#399de5"] ;
283 -> 285 ;
286 [label="gini = 0.0\nsamples = 1\nvalue = [0, 1]\nclass = >50K", fillcolor="#399de5"] ;
282 -> 286 ;
287 [label="gini = 0.0\nsamples = 5\nvalue = [5, 0]\nclass = <=50K", fillcolor="#e58139"] ;
281 -> 287 ;
288 [label="occupation_Other-service <= 0.5\ngini = 0.444\nsamples = 18\nvalue = [6, 12]\nclass = >50K", fillcolor="#9ccef2"] ;
280 -> 288 ;
289 [label="weeklyHours <= 22.5\ngini = 0.415\nsamples = 17\nvalue = [5, 12]\nclass = >50K", fillcolor="#8bc6f0"] ;
288 -> 289 ;
290 [label="gini = 0.0\nsamples = 1\nvalue = [1, 0]\nclass = <=50K", fillcolor="#e58139"] ;
289 -> 290 ;
291 [label="occupation_Prof-specialty <= 0.5\ngini = 0.375\nsamples = 16\nvalue = [4, 12]\nclass = >50K", fillcolor="#7bbeee"] ;
289 -> 291 ;
292 [label="weeklyHours <= 52.5\ngini = 0.198\nsamples = 9\nvalue = [1, 8]\nclass = >50K", fillcolor="#52a9e8"] ;
291 -> 292 ;
293 [label="gini = 0.0\nsamples = 8\nvalue = [0, 8]\nclass = >50K", fillcolor="#399de5"] ;
292 -> 293 ;
294 [label="gini = 0.0\nsamples = 1\nvalue = [1, 0]\nclass = <=50K", fillcolor="#e58139"] ;
292 -> 294 ;
295 [label="education_num <= 12.5\ngini = 0.49\nsamples = 7\nvalue = [3, 4]\nclass = >50K", fillcolor="#cee6f8"] ;
291 -> 295 ;
296 [label="gini = 0.0\nsamples = 2\nvalue = [2, 0]\nclass = <=50K", fillcolor="#e58139"] ;
295 -> 296 ;
297 [label="age <= 55.0\ngini = 0.32\nsamples = 5\nvalue = [1, 4]\nclass = >50K", fillcolor="#6ab6ec"] ;
295 -> 297 ;
298 [label="weeklyHours <= 50.0\ngini = 0.5\nsamples = 2\nvalue = [1, 1]\nclass = <=50K", fillcolor="#ffffff"] ;
297 -> 298 ;
299 [label="gini = 0.0\nsamples = 1\nvalue = [1, 0]\nclass = <=50K", fillcolor="#e58139"] ;
298 -> 299 ;
300 [label="gini = 0.0\nsamples = 1\nvalue = [0, 1]\nclass = >50K", fillcolor="#399de5"] ;
298 -> 300 ;
301 [label="gini = 0.0\nsamples = 3\nvalue = [0, 3]\nclass = >50K", fillcolor="#399de5"] ;
297 -> 301 ;
302 [label="gini = 0.0\nsamples = 1\nvalue = [1, 0]\nclass = <=50K", fillcolor="#e58139"] ;
288 -> 302 ;
303 [label="gini = 0.0\nsamples = 3\nvalue = [3, 0]\nclass = <=50K", fillcolor="#e58139"] ;
253 -> 303 ;
304 [label="gini = 0.0\nsamples = 8\nvalue = [0, 8]\nclass = >50K", fillcolor="#399de5"] ;
250 -> 304 ;
305 [label="gini = 0.0\nsamples = 12\nvalue = [0, 12]\nclass = >50K", fillcolor="#399de5"] ;
249 -> 305 ;
306 [label="weeklyHours <= 24.0\ngini = 0.184\nsamples = 39\nvalue = [4, 35]\nclass = >50K", fillcolor="#50a8e8"] ;
248 -> 306 ;
307 [label="gini = 0.0\nsamples = 1\nvalue = [1, 0]\nclass = <=50K", fillcolor="#e58139"] ;
306 -> 307 ;
308 [label="education_num <= 13.5\ngini = 0.145\nsamples = 38\nvalue = [3, 35]\nclass = >50K", fillcolor="#4aa5e7"] ;
306 -> 308 ;
309 [label="weeklyHours <= 55.0\ngini = 0.071\nsamples = 27\nvalue = [1, 26]\nclass = >50K", fillcolor="#41a1e6"] ;
308 -> 309 ;
310 [label="gini = 0.0\nsamples = 22\nvalue = [0, 22]\nclass = >50K", fillcolor="#399de5"] ;
309 -> 310 ;
311 [label="capital_gain <= 7512.0\ngini = 0.32\nsamples = 5\nvalue = [1, 4]\nclass = >50K", fillcolor="#6ab6ec"] ;
309 -> 311 ;
312 [label="age <= 40.5\ngini = 0.5\nsamples = 2\nvalue = [1, 1]\nclass = <=50K", fillcolor="#ffffff"] ;
311 -> 312 ;
313 [label="gini = 0.0\nsamples = 1\nvalue = [1, 0]\nclass = <=50K", fillcolor="#e58139"] ;
312 -> 313 ;
314 [label="gini = 0.0\nsamples = 1\nvalue = [0, 1]\nclass = >50K", fillcolor="#399de5"] ;
312 -> 314 ;
315 [label="gini = 0.0\nsamples = 3\nvalue = [0, 3]\nclass = >50K", fillcolor="#399de5"] ;
311 -> 315 ;
316 [label="relationship_Husband <= 0.5\ngini = 0.298\nsamples = 11\nvalue = [2, 9]\nclass = >50K", fillcolor="#65b3eb"] ;
308 -> 316 ;
317 [label="gini = 0.0\nsamples = 1\nvalue = [1, 0]\nclass = <=50K", fillcolor="#e58139"] ;
316 -> 317 ;
318 [label="capital_gain <= 2506.5\ngini = 0.18\nsamples = 10\nvalue = [1, 9]\nclass = >50K", fillcolor="#4fa8e8"] ;
316 -> 318 ;
319 [label="gini = 0.0\nsamples = 7\nvalue = [0, 7]\nclass = >50K", fillcolor="#399de5"] ;
318 -> 319 ;
320 [label="capital_gain <= 6155.5\ngini = 0.444\nsamples = 3\nvalue = [1, 2]\nclass = >50K", fillcolor="#9ccef2"] ;
318 -> 320 ;
321 [label="gini = 0.0\nsamples = 1\nvalue = [1, 0]\nclass = <=50K", fillcolor="#e58139"] ;
320 -> 321 ;
322 [label="gini = 0.0\nsamples = 2\nvalue = [0, 2]\nclass = >50K", fillcolor="#399de5"] ;
320 -> 322 ;
}